digraph Tree {
node [shape=box] ;
0 [label="X[1] <= 0.5\ngini = 0.473\nsamples = 891\nvalue = [549, 342]"] ;
1 [label="X[0] <= 2.5\ngini = 0.3828\nsamples = 314\nvalue = [81, 233]"] ;
0 -> 1 [labeldistance=2.5, labelangle=45, headlabel="True"] ;
2 [label="X[2] <= 2.5\ngini = 0.1003\nsamples = 170\nvalue = [9, 161]"] ;
1 -> 2 ;
3 [label="X[6] <= 1.5\ngini = 0.5\nsamples = 2\nvalue = [1, 1]"] ;
2 -> 3 ;
4 [label="gini = 0.0\nsamples = 1\nvalue = [0, 1]"] ;
3 -> 4 ;
5 [label="gini = 0.0\nsamples = 1\nvalue = [1, 0]"] ;
3 -> 5 ;
6 [label="X[3] <= 28.8563\ngini = 0.0907\nsamples = 168\nvalue = [8, 160]"] ;
2 -> 6 ;
7 [label="X[3] <= 28.2313\ngini = 0.1823\nsamples = 69\nvalue = [7, 62]"] ;
6 -> 7 ;
8 [label="X[2] <= 56.0\ngini = 0.1609\nsamples = 68\nvalue = [6, 62]"] ;
7 -> 8 ;
9 [label="X[5] <= 0.5\ngini = 0.14\nsamples = 66\nvalue = [5, 61]"] ;
8 -> 9 ;
10 [label="X[3] <= 13.25\ngini = 0.0849\nsamples = 45\nvalue = [2, 43]"] ;
9 -> 10 ;
11 [label="X[3] <= 12.825\ngini = 0.1472\nsamples = 25\nvalue = [2, 23]"] ;
10 -> 11 ;
12 [label="gini = 0.0\nsamples = 11\nvalue = [0, 11]"] ;
11 -> 12 ;
13 [label="X[2] <= 26.0\ngini = 0.2449\nsamples = 14\nvalue = [2, 12]"] ;
11 -> 13 ;
14 [label="X[6] <= 1.0\ngini = 0.4444\nsamples = 3\nvalue = [1, 2]"] ;
13 -> 14 ;
15 [label="gini = 0.5\nsamples = 2\nvalue = [1, 1]"] ;
14 -> 15 ;
16 [label="gini = 0.0\nsamples = 1\nvalue = [0, 1]"] ;
14 -> 16 ;
17 [label="X[2] <= 37.0\ngini = 0.1653\nsamples = 11\nvalue = [1, 10]"] ;
13 -> 17 ;
18 [label="gini = 0.0\nsamples = 8\nvalue = [0, 8]"] ;
17 -> 18 ;
19 [label="X[2] <= 39.0\ngini = 0.4444\nsamples = 3\nvalue = [1, 2]"] ;
17 -> 19 ;
20 [label="gini = 0.0\nsamples = 1\nvalue = [1, 0]"] ;
19 -> 20 ;
21 [label="gini = 0.0\nsamples = 2\nvalue = [0, 2]"] ;
19 -> 21 ;
22 [label="gini = 0.0\nsamples = 20\nvalue = [0, 20]"] ;
10 -> 22 ;
23 [label="X[2] <= 25.0\ngini = 0.2449\nsamples = 21\nvalue = [3, 18]"] ;
9 -> 23 ;
24 [label="gini = 0.0\nsamples = 6\nvalue = [0, 6]"] ;
23 -> 24 ;
25 [label="X[2] <= 27.5\ngini = 0.32\nsamples = 15\nvalue = [3, 12]"] ;
23 -> 25 ;
26 [label="X[3] <= 17.4291\ngini = 0.4444\nsamples = 3\nvalue = [2, 1]"] ;
25 -> 26 ;
27 [label="gini = 0.0\nsamples = 1\nvalue = [0, 1]"] ;
26 -> 27 ;
28 [label="gini = 0.0\nsamples = 2\nvalue = [2, 0]"] ;
26 -> 28 ;
29 [label="X[2] <= 43.0\ngini = 0.1528\nsamples = 12\nvalue = [1, 11]"] ;
25 -> 29 ;
30 [label="gini = 0.0\nsamples = 9\nvalue = [0, 9]"] ;
29 -> 30 ;
31 [label="X[6] <= 0.5\ngini = 0.4444\nsamples = 3\nvalue = [1, 2]"] ;
29 -> 31 ;
32 [label="gini = 0.0\nsamples = 1\nvalue = [1, 0]"] ;
31 -> 32 ;
33 [label="gini = 0.0\nsamples = 2\nvalue = [0, 2]"] ;
31 -> 33 ;
34 [label="X[0] <= 1.5\ngini = 0.5\nsamples = 2\nvalue = [1, 1]"] ;
8 -> 34 ;
35 [label="gini = 0.0\nsamples = 1\nvalue = [0, 1]"] ;
34 -> 35 ;
36 [label="gini = 0.0\nsamples = 1\nvalue = [1, 0]"] ;
34 -> 36 ;
37 [label="gini = 0.0\nsamples = 1\nvalue = [1, 0]"] ;
7 -> 37 ;
38 [label="X[6] <= 1.5\ngini = 0.02\nsamples = 99\nvalue = [1, 98]"] ;
6 -> 38 ;
39 [label="gini = 0.0\nsamples = 84\nvalue = [0, 84]"] ;
38 -> 39 ;
40 [label="X[2] <= 24.5\ngini = 0.1244\nsamples = 15\nvalue = [1, 14]"] ;
38 -> 40 ;
41 [label="gini = 0.0\nsamples = 10\nvalue = [0, 10]"] ;
40 -> 41 ;
42 [label="X[2] <= 28.0\ngini = 0.32\nsamples = 5\nvalue = [1, 4]"] ;
40 -> 42 ;
43 [label="gini = 0.0\nsamples = 1\nvalue = [1, 0]"] ;
42 -> 43 ;
44 [label="gini = 0.0\nsamples = 4\nvalue = [0, 4]"] ;
42 -> 44 ;
45 [label="X[3] <= 23.35\ngini = 0.5\nsamples = 144\nvalue = [72, 72]"] ;
1 -> 45 ;
46 [label="X[2] <= 36.5\ngini = 0.4839\nsamples = 117\nvalue = [48, 69]"] ;
45 -> 46 ;
47 [label="X[4] <= 1.5\ngini = 0.4721\nsamples = 110\nvalue = [42, 68]"] ;
46 -> 47 ;
48 [label="X[2] <= 29.75\ngini = 0.4058\nsamples = 53\nvalue = [15, 38]"] ;
47 -> 48 ;
49 [label="X[3] <= 15.3729\ngini = 0.3799\nsamples = 51\nvalue = [13, 38]"] ;
48 -> 49 ;
50 [label="X[3] <= 13.9354\ngini = 0.4388\nsamples = 40\nvalue = [13, 27]"] ;
49 -> 50 ;
51 [label="X[3] <= 6.9875\ngini = 0.3122\nsamples = 31\nvalue = [6, 25]"] ;
50 -> 51 ;
52 [label="gini = 0.0\nsamples = 1\nvalue = [1, 0]"] ;
51 -> 52 ;
53 [label="X[6] <= 1.5\ngini = 0.2778\nsamples = 30\nvalue = [5, 25]"] ;
51 -> 53 ;
54 [label="X[2] <= 20.0\ngini = 0.2378\nsamples = 29\nvalue = [4, 25]"] ;
53 -> 54 ;
55 [label="gini = 0.0\nsamples = 8\nvalue = [0, 8]"] ;
54 -> 55 ;
56 [label="X[2] <= 21.5\ngini = 0.3084\nsamples = 21\nvalue = [4, 17]"] ;
54 -> 56 ;
57 [label="gini = 0.0\nsamples = 1\nvalue = [1, 0]"] ;
56 -> 57 ;
58 [label="X[3] <= 8.0084\ngini = 0.255\nsamples = 20\nvalue = [3, 17]"] ;
56 -> 58 ;
59 [label="X[3] <= 7.6813\ngini = 0.1884\nsamples = 19\nvalue = [2, 17]"] ;
58 -> 59 ;
60 [label="X[3] <= 7.4292\ngini = 0.4444\nsamples = 3\nvalue = [1, 2]"] ;
59 -> 60 ;
61 [label="gini = 0.0\nsamples = 2\nvalue = [0, 2]"] ;
60 -> 61 ;
62 [label="gini = 0.0\nsamples = 1\nvalue = [1, 0]"] ;
60 -> 62 ;
63 [label="X[3] <= 7.7688\ngini = 0.1172\nsamples = 16\nvalue = [1, 15]"] ;
59 -> 63 ;
64 [label="X[3] <= 7.7438\ngini = 0.1653\nsamples = 11\nvalue = [1, 10]"] ;
63 -> 64 ;
65 [label="gini = 0.0\nsamples = 2\nvalue = [0, 2]"] ;
64 -> 65 ;
66 [label="X[2] <= 25.0\ngini = 0.1975\nsamples = 9\nvalue = [1, 8]"] ;
64 -> 66 ;
67 [label="gini = 0.0\nsamples = 1\nvalue = [0, 1]"] ;
66 -> 67 ;
68 [label="gini = 0.2188\nsamples = 8\nvalue = [1, 7]"] ;
66 -> 68 ;
69 [label="gini = 0.0\nsamples = 5\nvalue = [0, 5]"] ;
63 -> 69 ;
70 [label="gini = 0.0\nsamples = 1\nvalue = [1, 0]"] ;
58 -> 70 ;
71 [label="gini = 0.0\nsamples = 1\nvalue = [1, 0]"] ;
53 -> 71 ;
72 [label="X[2] <= 28.5\ngini = 0.3457\nsamples = 9\nvalue = [7, 2]"] ;
50 -> 72 ;
73 [label="X[2] <= 16.0\ngini = 0.2188\nsamples = 8\nvalue = [7, 1]"] ;
72 -> 73 ;
74 [label="X[2] <= 14.75\ngini = 0.4444\nsamples = 3\nvalue = [2, 1]"] ;
73 -> 74 ;
75 [label="gini = 0.0\nsamples = 2\nvalue = [2, 0]"] ;
74 -> 75 ;
76 [label="gini = 0.0\nsamples = 1\nvalue = [0, 1]"] ;
74 -> 76 ;
77 [label="gini = 0.0\nsamples = 5\nvalue = [5, 0]"] ;
73 -> 77 ;
78 [label="gini = 0.0\nsamples = 1\nvalue = [0, 1]"] ;
72 -> 78 ;
79 [label="gini = 0.0\nsamples = 11\nvalue = [0, 11]"] ;
49 -> 79 ;
80 [label="gini = 0.0\nsamples = 2\nvalue = [2, 0]"] ;
48 -> 80 ;
81 [label="X[3] <= 10.825\ngini = 0.4986\nsamples = 57\nvalue = [27, 30]"] ;
47 -> 81 ;
82 [label="X[3] <= 7.7625\ngini = 0.4885\nsamples = 33\nvalue = [19, 14]"] ;
81 -> 82 ;
83 [label="X[2] <= 25.5\ngini = 0.2778\nsamples = 6\nvalue = [1, 5]"] ;
82 -> 83 ;
84 [label="gini = 0.0\nsamples = 5\nvalue = [0, 5]"] ;
83 -> 84 ;
85 [label="gini = 0.0\nsamples = 1\nvalue = [1, 0]"] ;
83 -> 85 ;
86 [label="X[2] <= 19.5\ngini = 0.4444\nsamples = 27\nvalue = [18, 9]"] ;
82 -> 86 ;
87 [label="X[2] <= 15.5\ngini = 0.4898\nsamples = 7\nvalue = [3, 4]"] ;
86 -> 87 ;
88 [label="gini = 0.0\nsamples = 2\nvalue = [2, 0]"] ;
87 -> 88 ;
89 [label="X[3] <= 7.8146\ngini = 0.32\nsamples = 5\nvalue = [1, 4]"] ;
87 -> 89 ;
90 [label="gini = 0.0\nsamples = 1\nvalue = [1, 0]"] ;
89 -> 90 ;
91 [label="gini = 0.0\nsamples = 4\nvalue = [0, 4]"] ;
89 -> 91 ;
92 [label="X[3] <= 7.9875\ngini = 0.375\nsamples = 20\nvalue = [15, 5]"] ;
86 -> 92 ;
93 [label="X[2] <= 27.5\ngini = 0.4938\nsamples = 9\nvalue = [5, 4]"] ;
92 -> 93 ;
94 [label="X[2] <= 25.5\ngini = 0.4898\nsamples = 7\nvalue = [3, 4]"] ;
93 -> 94 ;
95 [label="X[2] <= 22.5\ngini = 0.375\nsamples = 4\nvalue = [3, 1]"] ;
94 -> 95 ;
96 [label="gini = 0.0\nsamples = 1\nvalue = [0, 1]"] ;
95 -> 96 ;
97 [label="gini = 0.0\nsamples = 3\nvalue = [3, 0]"] ;
95 -> 97 ;
98 [label="gini = 0.0\nsamples = 3\nvalue = [0, 3]"] ;
94 -> 98 ;
99 [label="gini = 0.0\nsamples = 2\nvalue = [2, 0]"] ;
93 -> 99 ;
100 [label="X[2] <= 30.5\ngini = 0.1653\nsamples = 11\nvalue = [10, 1]"] ;
92 -> 100 ;
101 [label="gini = 0.0\nsamples = 10\nvalue = [10, 0]"] ;
100 -> 101 ;
102 [label="gini = 0.0\nsamples = 1\nvalue = [0, 1]"] ;
100 -> 102 ;
103 [label="X[3] <= 17.6\ngini = 0.4444\nsamples = 24\nvalue = [8, 16]"] ;
81 -> 103 ;
104 [label="X[2] <= 25.0\ngini = 0.2311\nsamples = 15\nvalue = [2, 13]"] ;
103 -> 104 ;
105 [label="gini = 0.0\nsamples = 6\nvalue = [0, 6]"] ;
104 -> 105 ;
106 [label="X[2] <= 26.5\ngini = 0.3457\nsamples = 9\nvalue = [2, 7]"] ;
104 -> 106 ;
107 [label="gini = 0.0\nsamples = 1\nvalue = [1, 0]"] ;
106 -> 107 ;
108 [label="X[6] <= 0.5\ngini = 0.2188\nsamples = 8\nvalue = [1, 7]"] ;
106 -> 108 ;
109 [label="gini = 0.0\nsamples = 5\nvalue = [0, 5]"] ;
108 -> 109 ;
110 [label="X[3] <= 13.4375\ngini = 0.4444\nsamples = 3\nvalue = [1, 2]"] ;
108 -> 110 ;
111 [label="gini = 0.0\nsamples = 2\nvalue = [0, 2]"] ;
110 -> 111 ;
112 [label="gini = 0.0\nsamples = 1\nvalue = [1, 0]"] ;
110 -> 112 ;
113 [label="X[5] <= 1.5\ngini = 0.4444\nsamples = 9\nvalue = [6, 3]"] ;
103 -> 113 ;
114 [label="X[6] <= 0.5\ngini = 0.5\nsamples = 6\nvalue = [3, 3]"] ;
113 -> 114 ;
115 [label="gini = 0.0\nsamples = 2\nvalue = [2, 0]"] ;
114 -> 115 ;
116 [label="X[6] <= 3.0\ngini = 0.375\nsamples = 4\nvalue = [1, 3]"] ;
114 -> 116 ;
117 [label="gini = 0.0\nsamples = 3\nvalue = [0, 3]"] ;
116 -> 117 ;
118 [label="gini = 0.0\nsamples = 1\nvalue = [1, 0]"] ;
116 -> 118 ;
119 [label="gini = 0.0\nsamples = 3\nvalue = [3, 0]"] ;
113 -> 119 ;
120 [label="X[2] <= 55.0\ngini = 0.2449\nsamples = 7\nvalue = [6, 1]"] ;
46 -> 120 ;
121 [label="gini = 0.0\nsamples = 6\nvalue = [6, 0]"] ;
120 -> 121 ;
122 [label="gini = 0.0\nsamples = 1\nvalue = [0, 1]"] ;
120 -> 122 ;
123 [label="X[6] <= 0.5\ngini = 0.1975\nsamples = 27\nvalue = [24, 3]"] ;
45 -> 123 ;
124 [label="gini = 0.0\nsamples = 1\nvalue = [0, 1]"] ;
123 -> 124 ;
125 [label="X[2] <= 5.5\ngini = 0.142\nsamples = 26\nvalue = [24, 2]"] ;
123 -> 125 ;
126 [label="X[2] <= 3.5\ngini = 0.4444\nsamples = 3\nvalue = [2, 1]"] ;
125 -> 126 ;
127 [label="gini = 0.0\nsamples = 2\nvalue = [2, 0]"] ;
126 -> 127 ;
128 [label="gini = 0.0\nsamples = 1\nvalue = [0, 1]"] ;
126 -> 128 ;
129 [label="X[6] <= 4.5\ngini = 0.0832\nsamples = 23\nvalue = [22, 1]"] ;
125 -> 129 ;
130 [label="gini = 0.0\nsamples = 18\nvalue = [18, 0]"] ;
129 -> 130 ;
131 [label="X[2] <= 38.5\ngini = 0.32\nsamples = 5\nvalue = [4, 1]"] ;
129 -> 131 ;
132 [label="gini = 0.0\nsamples = 1\nvalue = [0, 1]"] ;
131 -> 132 ;
133 [label="gini = 0.0\nsamples = 4\nvalue = [4, 0]"] ;
131 -> 133 ;
134 [label="X[2] <= 6.5\ngini = 0.3064\nsamples = 577\nvalue = [468, 109]"] ;
0 -> 134 [labeldistance=2.5, labelangle=-45, headlabel="False"] ;
135 [label="X[5] <= 2.5\ngini = 0.4444\nsamples = 24\nvalue = [8, 16]"] ;
134 -> 135 ;
136 [label="gini = 0.0\nsamples = 15\nvalue = [0, 15]"] ;
135 -> 136 ;
137 [label="X[6] <= 1.5\ngini = 0.1975\nsamples = 9\nvalue = [8, 1]"] ;
135 -> 137 ;
138 [label="gini = 0.0\nsamples = 5\nvalue = [5, 0]"] ;
137 -> 138 ;
139 [label="X[2] <= 3.5\ngini = 0.375\nsamples = 4\nvalue = [3, 1]"] ;
137 -> 139 ;
140 [label="X[3] <= 39.1438\ngini = 0.5\nsamples = 2\nvalue = [1, 1]"] ;
139 -> 140 ;
141 [label="gini = 0.0\nsamples = 1\nvalue = [0, 1]"] ;
140 -> 141 ;
142 [label="gini = 0.0\nsamples = 1\nvalue = [1, 0]"] ;
140 -> 142 ;
143 [label="gini = 0.0\nsamples = 2\nvalue = [2, 0]"] ;
139 -> 143 ;
144 [label="X[0] <= 1.5\ngini = 0.2798\nsamples = 553\nvalue = [460, 93]"] ;
134 -> 144 ;
145 [label="X[3] <= 26.1437\ngini = 0.4599\nsamples = 120\nvalue = [77, 43]"] ;
144 -> 145 ;
146 [label="gini = 0.0\nsamples = 10\nvalue = [10, 0]"] ;
145 -> 146 ;
147 [label="X[2] <= 53.0\ngini = 0.4762\nsamples = 110\nvalue = [67, 43]"] ;
145 -> 147 ;
148 [label="X[3] <= 27.1354\ngini = 0.4949\nsamples = 89\nvalue = [49, 40]"] ;
147 -> 148 ;
149 [label="X[3] <= 26.4688\ngini = 0.2604\nsamples = 13\nvalue = [2, 11]"] ;
148 -> 149 ;
150 [label="gini = 0.0\nsamples = 4\nvalue = [0, 4]"] ;
149 -> 150 ;
151 [label="X[2] <= 46.5\ngini = 0.3457\nsamples = 9\nvalue = [2, 7]"] ;
149 -> 151 ;
152 [label="X[2] <= 40.0\ngini = 0.4082\nsamples = 7\nvalue = [2, 5]"] ;
151 -> 152 ;
153 [label="X[2] <= 31.0\ngini = 0.32\nsamples = 5\nvalue = [1, 4]"] ;
152 -> 153 ;
154 [label="gini = 0.4444\nsamples = 3\nvalue = [1, 2]"] ;
153 -> 154 ;
155 [label="gini = 0.0\nsamples = 2\nvalue = [0, 2]"] ;
153 -> 155 ;
156 [label="gini = 0.5\nsamples = 2\nvalue = [1, 1]"] ;
152 -> 156 ;
157 [label="gini = 0.0\nsamples = 2\nvalue = [0, 2]"] ;
151 -> 157 ;
158 [label="X[2] <= 17.5\ngini = 0.472\nsamples = 76\nvalue = [47, 29]"] ;
148 -> 158 ;
159 [label="gini = 0.0\nsamples = 2\nvalue = [0, 2]"] ;
158 -> 159 ;
160 [label="X[3] <= 387.6646\ngini = 0.4635\nsamples = 74\nvalue = [47, 27]"] ;
158 -> 160 ;
161 [label="X[3] <= 134.6416\ngini = 0.4533\nsamples = 72\nvalue = [47, 25]"] ;
160 -> 161 ;
162 [label="X[2] <= 27.5\ngini = 0.4734\nsamples = 65\nvalue = [40, 25]"] ;
161 -> 162 ;
163 [label="X[2] <= 24.5\ngini = 0.4628\nsamples = 11\nvalue = [4, 7]"] ;
162 -> 163 ;
164 [label="X[3] <= 70.3229\ngini = 0.32\nsamples = 5\nvalue = [4, 1]"] ;
163 -> 164 ;
165 [label="X[6] <= 0.5\ngini = 0.5\nsamples = 2\nvalue = [1, 1]"] ;
164 -> 165 ;
166 [label="gini = 0.0\nsamples = 1\nvalue = [1, 0]"] ;
165 -> 166 ;
167 [label="gini = 0.0\nsamples = 1\nvalue = [0, 1]"] ;
165 -> 167 ;
168 [label="gini = 0.0\nsamples = 3\nvalue = [3, 0]"] ;
164 -> 168 ;
169 [label="gini = 0.0\nsamples = 6\nvalue = [0, 6]"] ;
163 -> 169 ;
170 [label="X[3] <= 115.4417\ngini = 0.4444\nsamples = 54\nvalue = [36, 18]"] ;
162 -> 170 ;
171 [label="X[3] <= 29.1\ngini = 0.426\nsamples = 52\nvalue = [36, 16]"] ;
170 -> 171 ;
172 [label="gini = 0.0\nsamples = 5\nvalue = [5, 0]"] ;
171 -> 172 ;
173 [label="X[3] <= 30.5979\ngini = 0.4491\nsamples = 47\nvalue = [31, 16]"] ;
171 -> 173 ;
174 [label="X[6] <= 0.5\ngini = 0.4082\nsamples = 7\nvalue = [2, 5]"] ;
173 -> 174 ;
175 [label="X[3] <= 30.25\ngini = 0.2778\nsamples = 6\nvalue = [1, 5]"] ;
174 -> 175 ;
176 [label="X[2] <= 28.5\ngini = 0.4444\nsamples = 3\nvalue = [1, 2]"] ;
175 -> 176 ;
177 [label="gini = 0.0\nsamples = 2\nvalue = [0, 2]"] ;
176 -> 177 ;
178 [label="gini = 0.0\nsamples = 1\nvalue = [1, 0]"] ;
176 -> 178 ;
179 [label="gini = 0.0\nsamples = 3\nvalue = [0, 3]"] ;
175 -> 179 ;
180 [label="gini = 0.0\nsamples = 1\nvalue = [1, 0]"] ;
174 -> 180 ;
181 [label="X[5] <= 0.5\ngini = 0.3988\nsamples = 40\nvalue = [29, 11]"] ;
173 -> 181 ;
182 [label="X[3] <= 37.0\ngini = 0.2659\nsamples = 19\nvalue = [16, 3]"] ;
181 -> 182 ;
183 [label="X[3] <= 35.25\ngini = 0.4688\nsamples = 8\nvalue = [5, 3]"] ;
182 -> 183 ;
184 [label="X[4] <= 1.0\ngini = 0.32\nsamples = 5\nvalue = [4, 1]"] ;
183 -> 184 ;
185 [label="X[3] <= 30.8479\ngini = 0.5\nsamples = 2\nvalue = [1, 1]"] ;
184 -> 185 ;
186 [label="gini = 0.0\nsamples = 1\nvalue = [1, 0]"] ;
185 -> 186 ;
187 [label="gini = 0.0\nsamples = 1\nvalue = [0, 1]"] ;
185 -> 187 ;
188 [label="gini = 0.0\nsamples = 3\nvalue = [3, 0]"] ;
184 -> 188 ;
189 [label="X[2] <= 36.5\ngini = 0.4444\nsamples = 3\nvalue = [1, 2]"] ;
183 -> 189 ;
190 [label="gini = 0.0\nsamples = 2\nvalue = [0, 2]"] ;
189 -> 190 ;
191 [label="gini = 0.0\nsamples = 1\nvalue = [1, 0]"] ;
189 -> 191 ;
192 [label="gini = 0.0\nsamples = 11\nvalue = [11, 0]"] ;
182 -> 192 ;
193 [label="X[2] <= 49.5\ngini = 0.4717\nsamples = 21\nvalue = [13, 8]"] ;
181 -> 193 ;
194 [label="X[2] <= 47.0\ngini = 0.4938\nsamples = 18\nvalue = [10, 8]"] ;
193 -> 194 ;
195 [label="X[6] <= 0.5\ngini = 0.426\nsamples = 13\nvalue = [9, 4]"] ;
194 -> 195 ;
196 [label="X[2] <= 43.0\ngini = 0.375\nsamples = 12\nvalue = [9, 3]"] ;
195 -> 196 ;
197 [label="X[3] <= 86.0854\ngini = 0.4444\nsamples = 9\nvalue = [6, 3]"] ;
196 -> 197 ;
198 [label="X[3] <= 61.8\ngini = 0.375\nsamples = 8\nvalue = [6, 2]"] ;
197 -> 198 ;
199 [label="X[3] <= 52.2771\ngini = 0.48\nsamples = 5\nvalue = [3, 2]"] ;
198 -> 199 ;
200 [label="gini = 0.0\nsamples = 2\nvalue = [2, 0]"] ;
199 -> 200 ;
201 [label="X[3] <= 52.8271\ngini = 0.4444\nsamples = 3\nvalue = [1, 2]"] ;
199 -> 201 ;
202 [label="gini = 0.0\nsamples = 1\nvalue = [0, 1]"] ;
201 -> 202 ;
203 [label="X[2] <= 34.0\ngini = 0.5\nsamples = 2\nvalue = [1, 1]"] ;
201 -> 203 ;
204 [label="gini = 0.0\nsamples = 1\nvalue = [0, 1]"] ;
203 -> 204 ;
205 [label="gini = 0.0\nsamples = 1\nvalue = [1, 0]"] ;
203 -> 205 ;
206 [label="gini = 0.0\nsamples = 3\nvalue = [3, 0]"] ;
198 -> 206 ;
207 [label="gini = 0.0\nsamples = 1\nvalue = [0, 1]"] ;
197 -> 207 ;
208 [label="gini = 0.0\nsamples = 3\nvalue = [3, 0]"] ;
196 -> 208 ;
209 [label="gini = 0.0\nsamples = 1\nvalue = [0, 1]"] ;
195 -> 209 ;
210 [label="X[3] <= 99.9938\ngini = 0.32\nsamples = 5\nvalue = [1, 4]"] ;
194 -> 210 ;
211 [label="gini = 0.0\nsamples = 4\nvalue = [0, 4]"] ;
210 -> 211 ;
212 [label="gini = 0.0\nsamples = 1\nvalue = [1, 0]"] ;
210 -> 212 ;
213 [label="gini = 0.0\nsamples = 3\nvalue = [3, 0]"] ;
193 -> 213 ;
214 [label="gini = 0.0\nsamples = 2\nvalue = [0, 2]"] ;
170 -> 214 ;
215 [label="gini = 0.0\nsamples = 7\nvalue = [7, 0]"] ;
161 -> 215 ;
216 [label="gini = 0.0\nsamples = 2\nvalue = [0, 2]"] ;
160 -> 216 ;
217 [label="X[2] <= 75.5\ngini = 0.2449\nsamples = 21\nvalue = [18, 3]"] ;
147 -> 217 ;
218 [label="X[4] <= 1.0\ngini = 0.18\nsamples = 20\nvalue = [18, 2]"] ;
217 -> 218 ;
219 [label="X[5] <= 0.5\ngini = 0.375\nsamples = 8\nvalue = [6, 2]"] ;
218 -> 219 ;
220 [label="X[2] <= 57.0\ngini = 0.2449\nsamples = 7\nvalue = [6, 1]"] ;
219 -> 220 ;
221 [label="X[3] <= 33.0979\ngini = 0.5\nsamples = 2\nvalue = [1, 1]"] ;
220 -> 221 ;
222 [label="gini = 0.0\nsamples = 1\nvalue = [1, 0]"] ;
221 -> 222 ;
223 [label="gini = 0.0\nsamples = 1\nvalue = [0, 1]"] ;
221 -> 223 ;
224 [label="gini = 0.0\nsamples = 5\nvalue = [5, 0]"] ;
220 -> 224 ;
225 [label="gini = 0.0\nsamples = 1\nvalue = [0, 1]"] ;
219 -> 225 ;
226 [label="gini = 0.0\nsamples = 12\nvalue = [12, 0]"] ;
218 -> 226 ;
227 [label="gini = 0.0\nsamples = 1\nvalue = [0, 1]"] ;
217 -> 227 ;
228 [label="X[3] <= 51.6979\ngini = 0.2043\nsamples = 433\nvalue = [383, 50]"] ;
144 -> 228 ;
229 [label="X[2] <= 13.0\ngini = 0.1925\nsamples = 417\nvalue = [372, 45]"] ;
228 -> 229 ;
230 [label="X[5] <= 2.0\ngini = 0.4444\nsamples = 12\nvalue = [8, 4]"] ;
229 -> 230 ;
231 [label="X[5] <= 0.5\ngini = 0.32\nsamples = 5\nvalue = [1, 4]"] ;
230 -> 231 ;
232 [label="X[2] <= 10.0\ngini = 0.5\nsamples = 2\nvalue = [1, 1]"] ;
231 -> 232 ;
233 [label="gini = 0.0\nsamples = 1\nvalue = [0, 1]"] ;
232 -> 233 ;
234 [label="gini = 0.0\nsamples = 1\nvalue = [1, 0]"] ;
232 -> 234 ;
235 [label="gini = 0.0\nsamples = 3\nvalue = [0, 3]"] ;
231 -> 235 ;
236 [label="gini = 0.0\nsamples = 7\nvalue = [7, 0]"] ;
230 -> 236 ;
237 [label="X[4] <= 0.5\ngini = 0.182\nsamples = 405\nvalue = [364, 41]"] ;
229 -> 237 ;
238 [label="X[3] <= 15.1479\ngini = 0.2999\nsamples = 49\nvalue = [40, 9]"] ;
237 -> 238 ;
239 [label="X[2] <= 22.5\ngini = 0.2235\nsamples = 39\nvalue = [34, 5]"] ;
238 -> 239 ;
240 [label="X[6] <= 0.5\ngini = 0.4444\nsamples = 6\nvalue = [4, 2]"] ;
239 -> 240 ;
241 [label="X[3] <= 5.6187\ngini = 0.5\nsamples = 4\nvalue = [2, 2]"] ;
240 -> 241 ;
242 [label="gini = 0.0\nsamples = 1\nvalue = [1, 0]"] ;
241 -> 242 ;
243 [label="X[3] <= 7.2271\ngini = 0.4444\nsamples = 3\nvalue = [1, 2]"] ;
241 -> 243 ;
244 [label="gini = 0.0\nsamples = 1\nvalue = [0, 1]"] ;
243 -> 244 ;
245 [label="X[2] <= 21.0\ngini = 0.5\nsamples = 2\nvalue = [1, 1]"] ;
243 -> 245 ;
246 [label="gini = 0.0\nsamples = 1\nvalue = [0, 1]"] ;
245 -> 246 ;
247 [label="gini = 0.0\nsamples = 1\nvalue = [1, 0]"] ;
245 -> 247 ;
248 [label="gini = 0.0\nsamples = 2\nvalue = [2, 0]"] ;
240 -> 248 ;
249 [label="X[3] <= 7.2271\ngini = 0.1653\nsamples = 33\nvalue = [30, 3]"] ;
239 -> 249 ;
250 [label="gini = 0.0\nsamples = 10\nvalue = [10, 0]"] ;
249 -> 250 ;
251 [label="X[2] <= 29.5\ngini = 0.2268\nsamples = 23\nvalue = [20, 3]"] ;
249 -> 251 ;
252 [label="X[2] <= 28.75\ngini = 0.2778\nsamples = 18\nvalue = [15, 3]"] ;
251 -> 252 ;
253 [label="X[0] <= 2.5\ngini = 0.2076\nsamples = 17\nvalue = [15, 2]"] ;
252 -> 253 ;
254 [label="X[3] <= 14.4542\ngini = 0.4444\nsamples = 3\nvalue = [2, 1]"] ;
253 -> 254 ;
255 [label="gini = 0.0\nsamples = 1\nvalue = [0, 1]"] ;
254 -> 255 ;
256 [label="gini = 0.0\nsamples = 2\nvalue = [2, 0]"] ;
254 -> 256 ;
257 [label="X[3] <= 7.5625\ngini = 0.1327\nsamples = 14\nvalue = [13, 1]"] ;
253 -> 257 ;
258 [label="X[2] <= 25.75\ngini = 0.2188\nsamples = 8\nvalue = [7, 1]"] ;
257 -> 258 ;
259 [label="gini = 0.0\nsamples = 1\nvalue = [1, 0]"] ;
258 -> 259 ;
260 [label="X[2] <= 28.25\ngini = 0.2449\nsamples = 7\nvalue = [6, 1]"] ;
258 -> 260 ;
261 [label="gini = 0.2778\nsamples = 6\nvalue = [5, 1]"] ;
260 -> 261 ;
262 [label="gini = 0.0\nsamples = 1\nvalue = [1, 0]"] ;
260 -> 262 ;
263 [label="gini = 0.0\nsamples = 6\nvalue = [6, 0]"] ;
257 -> 263 ;
264 [label="gini = 0.0\nsamples = 1\nvalue = [0, 1]"] ;
252 -> 264 ;
265 [label="gini = 0.0\nsamples = 5\nvalue = [5, 0]"] ;
251 -> 265 ;
266 [label="X[3] <= 20.2333\ngini = 0.48\nsamples = 10\nvalue = [6, 4]"] ;
238 -> 266 ;
267 [label="gini = 0.0\nsamples = 4\nvalue = [0, 4]"] ;
266 -> 267 ;
268 [label="gini = 0.0\nsamples = 6\nvalue = [6, 0]"] ;
266 -> 268 ;
269 [label="X[3] <= 13.25\ngini = 0.1636\nsamples = 356\nvalue = [324, 32]"] ;
237 -> 269 ;
270 [label="X[3] <= 7.9104\ngini = 0.1884\nsamples = 285\nvalue = [255, 30]"] ;
269 -> 270 ;
271 [label="X[3] <= 7.8646\ngini = 0.1292\nsamples = 144\nvalue = [134, 10]"] ;
270 -> 271 ;
272 [label="X[2] <= 32.5\ngini = 0.1653\nsamples = 110\nvalue = [100, 10]"] ;
271 -> 272 ;
273 [label="X[2] <= 31.5\ngini = 0.2035\nsamples = 87\nvalue = [77, 10]"] ;
272 -> 273 ;
274 [label="X[2] <= 23.5\ngini = 0.1893\nsamples = 85\nvalue = [76, 9]"] ;
273 -> 274 ;
275 [label="X[3] <= 7.7854\ngini = 0.0666\nsamples = 29\nvalue = [28, 1]"] ;
274 -> 275 ;
276 [label="gini = 0.0\nsamples = 20\nvalue = [20, 0]"] ;
275 -> 276 ;
277 [label="X[3] <= 7.7979\ngini = 0.1975\nsamples = 9\nvalue = [8, 1]"] ;
275 -> 277 ;
278 [label="X[2] <= 19.5\ngini = 0.4444\nsamples = 3\nvalue = [2, 1]"] ;
277 -> 278 ;
279 [label="gini = 0.0\nsamples = 1\nvalue = [1, 0]"] ;
278 -> 279 ;
280 [label="X[2] <= 21.5\ngini = 0.5\nsamples = 2\nvalue = [1, 1]"] ;
278 -> 280 ;
281 [label="gini = 0.0\nsamples = 1\nvalue = [0, 1]"] ;
280 -> 281 ;
282 [label="gini = 0.0\nsamples = 1\nvalue = [1, 0]"] ;
280 -> 282 ;
283 [label="gini = 0.0\nsamples = 6\nvalue = [6, 0]"] ;
277 -> 283 ;
284 [label="X[2] <= 27.5\ngini = 0.2449\nsamples = 56\nvalue = [48, 8]"] ;
274 -> 284 ;
285 [label="X[3] <= 7.0125\ngini = 0.4297\nsamples = 16\nvalue = [11, 5]"] ;
284 -> 285 ;
286 [label="gini = 0.0\nsamples = 2\nvalue = [0, 2]"] ;
285 -> 286 ;
287 [label="X[2] <= 26.5\ngini = 0.3367\nsamples = 14\nvalue = [11, 3]"] ;
285 -> 287 ;
288 [label="X[5] <= 0.5\ngini = 0.2604\nsamples = 13\nvalue = [11, 2]"] ;
287 -> 288 ;
289 [label="X[3] <= 7.1958\ngini = 0.18\nsamples = 10\nvalue = [9, 1]"] ;
288 -> 289 ;
290 [label="X[3] <= 7.0958\ngini = 0.375\nsamples = 4\nvalue = [3, 1]"] ;
289 -> 290 ;
291 [label="gini = 0.0\nsamples = 3\nvalue = [3, 0]"] ;
290 -> 291 ;
292 [label="gini = 0.0\nsamples = 1\nvalue = [0, 1]"] ;
290 -> 292 ;
293 [label="gini = 0.0\nsamples = 6\nvalue = [6, 0]"] ;
289 -> 293 ;
294 [label="X[2] <= 25.5\ngini = 0.4444\nsamples = 3\nvalue = [2, 1]"] ;
288 -> 294 ;
295 [label="gini = 0.5\nsamples = 2\nvalue = [1, 1]"] ;
294 -> 295 ;
296 [label="gini = 0.0\nsamples = 1\nvalue = [1, 0]"] ;
294 -> 296 ;
297 [label="gini = 0.0\nsamples = 1\nvalue = [0, 1]"] ;
287 -> 297 ;
298 [label="X[3] <= 7.7438\ngini = 0.1388\nsamples = 40\nvalue = [37, 3]"] ;
284 -> 298 ;
299 [label="gini = 0.0\nsamples = 20\nvalue = [20, 0]"] ;
298 -> 299 ;
300 [label="X[3] <= 7.7854\ngini = 0.255\nsamples = 20\nvalue = [17, 3]"] ;
298 -> 300 ;
301 [label="X[2] <= 30.0\ngini = 0.2907\nsamples = 17\nvalue = [14, 3]"] ;
300 -> 301 ;
302 [label="X[2] <= 28.5\ngini = 0.32\nsamples = 15\nvalue = [12, 3]"] ;
301 -> 302 ;
303 [label="X[4] <= 1.5\ngini = 0.2604\nsamples = 13\nvalue = [11, 2]"] ;
302 -> 303 ;
304 [label="X[5] <= 0.5\ngini = 0.1653\nsamples = 11\nvalue = [10, 1]"] ;
303 -> 304 ;
305 [label="gini = 0.18\nsamples = 10\nvalue = [9, 1]"] ;
304 -> 305 ;
306 [label="gini = 0.0\nsamples = 1\nvalue = [1, 0]"] ;
304 -> 306 ;
307 [label="gini = 0.5\nsamples = 2\nvalue = [1, 1]"] ;
303 -> 307 ;
308 [label="X[3] <= 7.7625\ngini = 0.5\nsamples = 2\nvalue = [1, 1]"] ;
302 -> 308 ;
309 [label="gini = 0.0\nsamples = 1\nvalue = [0, 1]"] ;
308 -> 309 ;
310 [label="gini = 0.0\nsamples = 1\nvalue = [1, 0]"] ;
308 -> 310 ;
311 [label="gini = 0.0\nsamples = 2\nvalue = [2, 0]"] ;
301 -> 311 ;
312 [label="gini = 0.0\nsamples = 3\nvalue = [3, 0]"] ;
300 -> 312 ;
313 [label="X[3] <= 7.8021\ngini = 0.5\nsamples = 2\nvalue = [1, 1]"] ;
273 -> 313 ;
314 [label="gini = 0.0\nsamples = 1\nvalue = [1, 0]"] ;
313 -> 314 ;
315 [label="gini = 0.0\nsamples = 1\nvalue = [0, 1]"] ;
313 -> 315 ;
316 [label="gini = 0.0\nsamples = 23\nvalue = [23, 0]"] ;
272 -> 316 ;
317 [label="gini = 0.0\nsamples = 34\nvalue = [34, 0]"] ;
271 -> 317 ;
318 [label="X[3] <= 7.9875\ngini = 0.2434\nsamples = 141\nvalue = [121, 20]"] ;
270 -> 318 ;
319 [label="X[2] <= 41.5\ngini = 0.4734\nsamples = 13\nvalue = [8, 5]"] ;
318 -> 319 ;
320 [label="X[5] <= 1.5\ngini = 0.4444\nsamples = 12\nvalue = [8, 4]"] ;
319 -> 320 ;
321 [label="X[5] <= 0.5\ngini = 0.48\nsamples = 10\nvalue = [6, 4]"] ;
320 -> 321 ;
322 [label="X[2] <= 26.0\ngini = 0.4444\nsamples = 9\nvalue = [6, 3]"] ;
321 -> 322 ;
323 [label="gini = 0.0\nsamples = 3\nvalue = [3, 0]"] ;
322 -> 323 ;
324 [label="X[2] <= 31.5\ngini = 0.5\nsamples = 6\nvalue = [3, 3]"] ;
322 -> 324 ;
325 [label="gini = 0.0\nsamples = 1\nvalue = [0, 1]"] ;
324 -> 325 ;
326 [label="X[2] <= 35.5\ngini = 0.48\nsamples = 5\nvalue = [3, 2]"] ;
324 -> 326 ;
327 [label="gini = 0.4444\nsamples = 3\nvalue = [2, 1]"] ;
326 -> 327 ;
328 [label="gini = 0.5\nsamples = 2\nvalue = [1, 1]"] ;
326 -> 328 ;
329 [label="gini = 0.0\nsamples = 1\nvalue = [0, 1]"] ;
321 -> 329 ;
330 [label="gini = 0.0\nsamples = 2\nvalue = [2, 0]"] ;
320 -> 330 ;
331 [label="gini = 0.0\nsamples = 1\nvalue = [0, 1]"] ;
319 -> 331 ;
332 [label="X[2] <= 19.5\ngini = 0.2069\nsamples = 128\nvalue = [113, 15]"] ;
318 -> 332 ;
333 [label="X[3] <= 8.1042\ngini = 0.32\nsamples = 20\nvalue = [16, 4]"] ;
332 -> 333 ;
334 [label="X[2] <= 17.0\ngini = 0.48\nsamples = 5\nvalue = [2, 3]"] ;
333 -> 334 ;
335 [label="gini = 0.5\nsamples = 2\nvalue = [1, 1]"] ;
334 -> 335 ;
336 [label="X[2] <= 18.5\ngini = 0.4444\nsamples = 3\nvalue = [1, 2]"] ;
334 -> 336 ;
337 [label="gini = 0.0\nsamples = 1\nvalue = [0, 1]"] ;
336 -> 337 ;
338 [label="gini = 0.5\nsamples = 2\nvalue = [1, 1]"] ;
336 -> 338 ;
339 [label="X[2] <= 18.5\ngini = 0.1244\nsamples = 15\nvalue = [14, 1]"] ;
333 -> 339 ;
340 [label="gini = 0.0\nsamples = 10\nvalue = [10, 0]"] ;
339 -> 340 ;
341 [label="X[3] <= 10.3354\ngini = 0.32\nsamples = 5\nvalue = [4, 1]"] ;
339 -> 341 ;
342 [label="gini = 0.0\nsamples = 2\nvalue = [2, 0]"] ;
341 -> 342 ;
343 [label="X[3] <= 11.75\ngini = 0.4444\nsamples = 3\nvalue = [2, 1]"] ;
341 -> 343 ;
344 [label="gini = 0.5\nsamples = 2\nvalue = [1, 1]"] ;
343 -> 344 ;
345 [label="gini = 0.0\nsamples = 1\nvalue = [1, 0]"] ;
343 -> 345 ;
346 [label="X[2] <= 26.5\ngini = 0.183\nsamples = 108\nvalue = [97, 11]"] ;
332 -> 346 ;
347 [label="gini = 0.0\nsamples = 31\nvalue = [31, 0]"] ;
346 -> 347 ;
348 [label="X[3] <= 8.0813\ngini = 0.2449\nsamples = 77\nvalue = [66, 11]"] ;
346 -> 348 ;
349 [label="X[2] <= 31.25\ngini = 0.1327\nsamples = 28\nvalue = [26, 2]"] ;
348 -> 349 ;
350 [label="gini = 0.0\nsamples = 16\nvalue = [16, 0]"] ;
349 -> 350 ;
351 [label="X[2] <= 33.0\ngini = 0.2778\nsamples = 12\nvalue = [10, 2]"] ;
349 -> 351 ;
352 [label="gini = 0.0\nsamples = 1\nvalue = [0, 1]"] ;
351 -> 352 ;
353 [label="X[2] <= 44.5\ngini = 0.1653\nsamples = 11\nvalue = [10, 1]"] ;
351 -> 353 ;
354 [label="gini = 0.0\nsamples = 7\nvalue = [7, 0]"] ;
353 -> 354 ;
355 [label="X[2] <= 47.5\ngini = 0.375\nsamples = 4\nvalue = [3, 1]"] ;
353 -> 355 ;
356 [label="gini = 0.0\nsamples = 1\nvalue = [0, 1]"] ;
355 -> 356 ;
357 [label="gini = 0.0\nsamples = 3\nvalue = [3, 0]"] ;
355 -> 357 ;
358 [label="X[3] <= 8.2375\ngini = 0.2999\nsamples = 49\nvalue = [40, 9]"] ;
348 -> 358 ;
359 [label="gini = 0.0\nsamples = 1\nvalue = [0, 1]"] ;
358 -> 359 ;
360 [label="X[2] <= 31.5\ngini = 0.2778\nsamples = 48\nvalue = [40, 8]"] ;
358 -> 360 ;
361 [label="X[2] <= 30.5\ngini = 0.3628\nsamples = 21\nvalue = [16, 5]"] ;
360 -> 361 ;
362 [label="X[0] <= 2.5\ngini = 0.3324\nsamples = 19\nvalue = [15, 4]"] ;
361 -> 362 ;
363 [label="X[2] <= 28.5\ngini = 0.18\nsamples = 10\nvalue = [9, 1]"] ;
362 -> 363 ;
364 [label="X[2] <= 27.5\ngini = 0.32\nsamples = 5\nvalue = [4, 1]"] ;
363 -> 364 ;
365 [label="gini = 0.0\nsamples = 2\nvalue = [2, 0]"] ;
364 -> 365 ;
366 [label="X[3] <= 11.75\ngini = 0.4444\nsamples = 3\nvalue = [2, 1]"] ;
364 -> 366 ;
367 [label="gini = 0.0\nsamples = 1\nvalue = [1, 0]"] ;
366 -> 367 ;
368 [label="gini = 0.5\nsamples = 2\nvalue = [1, 1]"] ;
366 -> 368 ;
369 [label="gini = 0.0\nsamples = 5\nvalue = [5, 0]"] ;
363 -> 369 ;
370 [label="X[2] <= 27.5\ngini = 0.4444\nsamples = 9\nvalue = [6, 3]"] ;
362 -> 370 ;
371 [label="gini = 0.0\nsamples = 1\nvalue = [0, 1]"] ;
370 -> 371 ;
372 [label="X[2] <= 28.5\ngini = 0.375\nsamples = 8\nvalue = [6, 2]"] ;
370 -> 372 ;
373 [label="gini = 0.0\nsamples = 5\nvalue = [5, 0]"] ;
372 -> 373 ;
374 [label="X[3] <= 9.4916\ngini = 0.4444\nsamples = 3\nvalue = [1, 2]"] ;
372 -> 374 ;
375 [label="gini = 0.0\nsamples = 1\nvalue = [1, 0]"] ;
374 -> 375 ;
376 [label="gini = 0.0\nsamples = 2\nvalue = [0, 2]"] ;
374 -> 376 ;
377 [label="X[3] <= 11.75\ngini = 0.5\nsamples = 2\nvalue = [1, 1]"] ;
361 -> 377 ;
378 [label="gini = 0.0\nsamples = 1\nvalue = [1, 0]"] ;
377 -> 378 ;
379 [label="gini = 0.0\nsamples = 1\nvalue = [0, 1]"] ;
377 -> 379 ;
380 [label="X[2] <= 59.5\ngini = 0.1975\nsamples = 27\nvalue = [24, 3]"] ;
360 -> 380 ;
381 [label="X[3] <= 12.7625\ngini = 0.1528\nsamples = 24\nvalue = [22, 2]"] ;
380 -> 381 ;
382 [label="gini = 0.0\nsamples = 13\nvalue = [13, 0]"] ;
381 -> 382 ;
383 [label="X[2] <= 45.0\ngini = 0.2975\nsamples = 11\nvalue = [9, 2]"] ;
381 -> 383 ;
384 [label="X[2] <= 40.5\ngini = 0.375\nsamples = 8\nvalue = [6, 2]"] ;
383 -> 384 ;
385 [label="X[2] <= 35.0\ngini = 0.2778\nsamples = 6\nvalue = [5, 1]"] ;
384 -> 385 ;
386 [label="gini = 0.4444\nsamples = 3\nvalue = [2, 1]"] ;
385 -> 386 ;
387 [label="gini = 0.0\nsamples = 3\nvalue = [3, 0]"] ;
385 -> 387 ;
388 [label="gini = 0.5\nsamples = 2\nvalue = [1, 1]"] ;
384 -> 388 ;
389 [label="gini = 0.0\nsamples = 3\nvalue = [3, 0]"] ;
383 -> 389 ;
390 [label="X[2] <= 64.0\ngini = 0.4444\nsamples = 3\nvalue = [2, 1]"] ;
380 -> 390 ;
391 [label="gini = 0.0\nsamples = 1\nvalue = [0, 1]"] ;
390 -> 391 ;
392 [label="gini = 0.0\nsamples = 2\nvalue = [2, 0]"] ;
390 -> 392 ;
393 [label="X[4] <= 1.5\ngini = 0.0548\nsamples = 71\nvalue = [69, 2]"] ;
269 -> 393 ;
394 [label="X[5] <= 1.5\ngini = 0.2449\nsamples = 7\nvalue = [6, 1]"] ;
393 -> 394 ;
395 [label="gini = 0.0\nsamples = 6\nvalue = [6, 0]"] ;
394 -> 395 ;
396 [label="gini = 0.0\nsamples = 1\nvalue = [0, 1]"] ;
394 -> 396 ;
397 [label="X[3] <= 25.7333\ngini = 0.0308\nsamples = 64\nvalue = [63, 1]"] ;
393 -> 397 ;
398 [label="gini = 0.0\nsamples = 38\nvalue = [38, 0]"] ;
397 -> 398 ;
399 [label="X[2] <= 33.0\ngini = 0.074\nsamples = 26\nvalue = [25, 1]"] ;
397 -> 399 ;
400 [label="X[2] <= 31.5\ngini = 0.1653\nsamples = 11\nvalue = [10, 1]"] ;
399 -> 400 ;
401 [label="gini = 0.0\nsamples = 10\nvalue = [10, 0]"] ;
400 -> 401 ;
402 [label="gini = 0.0\nsamples = 1\nvalue = [0, 1]"] ;
400 -> 402 ;
403 [label="gini = 0.0\nsamples = 15\nvalue = [15, 0]"] ;
399 -> 403 ;
404 [label="X[3] <= 63.0229\ngini = 0.4297\nsamples = 16\nvalue = [11, 5]"] ;
228 -> 404 ;
405 [label="X[2] <= 30.0\ngini = 0.4082\nsamples = 7\nvalue = [2, 5]"] ;
404 -> 405 ;
406 [label="X[2] <= 27.0\ngini = 0.48\nsamples = 5\nvalue = [2, 3]"] ;
405 -> 406 ;
407 [label="gini = 0.0\nsamples = 1\nvalue = [0, 1]"] ;
406 -> 407 ;
408 [label="gini = 0.5\nsamples = 4\nvalue = [2, 2]"] ;
406 -> 408 ;
409 [label="gini = 0.0\nsamples = 2\nvalue = [0, 2]"] ;
405 -> 409 ;
410 [label="gini = 0.0\nsamples = 9\nvalue = [9, 0]"] ;
404 -> 410 ;
}